digraph Tree {
node [shape=box] ;
0 [label="spread1 <= -6.421\nentropy = 0.839\nsamples = 97\nvalue = [26, 71]\nclass = ParkinsonDisease"] ;
1 [label="RPDE <= 0.406\nentropy = 0.826\nsamples = 27\nvalue = [20, 7]\nclass = Healthy"] ;
0 -> 1 [labeldistance=2.5, labelangle=45, headlabel="True"] ;
2 [label="PPE <= 0.104\nentropy = 1.0\nsamples = 14\nvalue = [7, 7]\nclass = Healthy"] ;
1 -> 2 ;
3 [label="entropy = 0.0\nsamples = 7\nvalue = [7, 0]\nclass = Healthy"] ;
2 -> 3 ;
4 [label="entropy = 0.0\nsamples = 7\nvalue = [0, 7]\nclass = ParkinsonDisease"] ;
2 -> 4 ;
5 [label="entropy = 0.0\nsamples = 13\nvalue = [13, 0]\nclass = Healthy"] ;
1 -> 5 ;
6 [label="D2 <= 2.199\nentropy = 0.422\nsamples = 70\nvalue = [6, 64]\nclass = ParkinsonDisease"] ;
0 -> 6 [labeldistance=2.5, labelangle=-45, headlabel="False"] ;
7 [label="RPDE <= 0.414\nentropy = 0.918\nsamples = 18\nvalue = [6, 12]\nclass = ParkinsonDisease"] ;
6 -> 7 ;
8 [label="entropy = 0.0\nsamples = 4\nvalue = [4, 0]\nclass = Healthy"] ;
7 -> 8 ;
9 [label="DFA <= 0.673\nentropy = 0.592\nsamples = 14\nvalue = [2, 12]\nclass = ParkinsonDisease"] ;
7 -> 9 ;
10 [label="entropy = 0.918\nsamples = 3\nvalue = [2, 1]\nclass = Healthy"] ;
9 -> 10 ;
11 [label="entropy = 0.0\nsamples = 11\nvalue = [0, 11]\nclass = ParkinsonDisease"] ;
9 -> 11 ;
12 [label="entropy = 0.0\nsamples = 52\nvalue = [0, 52]\nclass = ParkinsonDisease"] ;
6 -> 12 ;
}