digraph Tree {
node [shape=box] ;
0 [label="Shimmer:APQ5 <= 0.014\nentropy = 0.834\nsamples = 136\nvalue = [36, 100]\nclass = ParkinsonDisease"] ;
1 [label="PPE <= 0.104\nentropy = 1.0\nsamples = 72\nvalue = [36, 36]\nclass = Healthy"] ;
0 -> 1 [labeldistance=2.5, labelangle=45, headlabel="True"] ;
2 [label="entropy = 0.0\nsamples = 17\nvalue = [17, 0]\nclass = Healthy"] ;
1 -> 2 ;
3 [label="D2 <= 2.261\nentropy = 0.93\nsamples = 55\nvalue = [19, 36]\nclass = ParkinsonDisease"] ;
1 -> 3 ;
4 [label="MDVP:Jitter(Abs) <= 0.0\nentropy = 0.975\nsamples = 27\nvalue = [16, 11]\nclass = Healthy"] ;
3 -> 4 ;
5 [label="MDVP:Fhi(Hz) <= 206.285\nentropy = 0.722\nsamples = 10\nvalue = [2, 8]\nclass = ParkinsonDisease"] ;
4 -> 5 ;
6 [label="entropy = 0.0\nsamples = 8\nvalue = [0, 8]\nclass = ParkinsonDisease"] ;
5 -> 6 ;
7 [label="entropy = 0.0\nsamples = 2\nvalue = [2, 0]\nclass = Healthy"] ;
5 -> 7 ;
8 [label="spread2 <= 0.24\nentropy = 0.672\nsamples = 17\nvalue = [14, 3]\nclass = Healthy"] ;
4 -> 8 ;
9 [label="entropy = 0.0\nsamples = 11\nvalue = [11, 0]\nclass = Healthy"] ;
8 -> 9 ;
10 [label="MDVP:Fo(Hz) <= 121.228\nentropy = 1.0\nsamples = 6\nvalue = [3, 3]\nclass = Healthy"] ;
8 -> 10 ;
11 [label="entropy = 0.0\nsamples = 3\nvalue = [0, 3]\nclass = ParkinsonDisease"] ;
10 -> 11 ;
12 [label="entropy = 0.0\nsamples = 3\nvalue = [3, 0]\nclass = Healthy"] ;
10 -> 12 ;
13 [label="NHR <= 0.034\nentropy = 0.491\nsamples = 28\nvalue = [3, 25]\nclass = ParkinsonDisease"] ;
3 -> 13 ;
14 [label="Shimmer:DDA <= 0.034\nentropy = 0.235\nsamples = 26\nvalue = [1, 25]\nclass = ParkinsonDisease"] ;
13 -> 14 ;
15 [label="entropy = 0.0\nsamples = 24\nvalue = [0, 24]\nclass = ParkinsonDisease"] ;
14 -> 15 ;
16 [label="DFA <= 0.77\nentropy = 1.0\nsamples = 2\nvalue = [1, 1]\nclass = Healthy"] ;
14 -> 16 ;
17 [label="entropy = 0.0\nsamples = 1\nvalue = [1, 0]\nclass = Healthy"] ;
16 -> 17 ;
18 [label="entropy = 0.0\nsamples = 1\nvalue = [0, 1]\nclass = ParkinsonDisease"] ;
16 -> 18 ;
19 [label="entropy = 0.0\nsamples = 2\nvalue = [2, 0]\nclass = Healthy"] ;
13 -> 19 ;
20 [label="entropy = 0.0\nsamples = 64\nvalue = [0, 64]\nclass = ParkinsonDisease"] ;
0 -> 20 [labeldistance=2.5, labelangle=-45, headlabel="False"] ;
}