digraph Tree {
node [shape=box] ;
0 [label="alcohol <= 10.725\nmse = 0.657\nsamples = 1119\nvalue = 5.641"] ;
1 [label="sulphates <= 0.555\nmse = 0.446\nsamples = 744\nvalue = 5.394"] ;
0 -> 1 [labeldistance=2.5, labelangle=45, headlabel="True"] ;
2 [label="volatile_acidity <= 0.673\nmse = 0.325\nsamples = 235\nvalue = 5.14"] ;
1 -> 2 ;
3 [label="alcohol <= 10.05\nmse = 0.264\nsamples = 159\nvalue = 5.252"] ;
2 -> 3 ;
4 [label="residual_sugar <= 1.25\nmse = 0.237\nsamples = 124\nvalue = 5.169"] ;
3 -> 4 ;
5 [label="mse = 0.0\nsamples = 1\nvalue = 7.0"] ;
4 -> 5 ;
6 [label="alcohol <= 9.05\nmse = 0.212\nsamples = 123\nvalue = 5.154"] ;
4 -> 6 ;
7 [label="sulphates <= 0.515\nmse = 0.222\nsamples = 3\nvalue = 4.333"] ;
6 -> 7 ;
8 [label="mse = 0.0\nsamples = 2\nvalue = 4.0"] ;
7 -> 8 ;
9 [label="mse = 0.0\nsamples = 1\nvalue = 5.0"] ;
7 -> 9 ;
10 [label="citric_acid <= 0.225\nmse = 0.194\nsamples = 120\nvalue = 5.175"] ;
6 -> 10 ;
11 [label="density <= 0.997\nmse = 0.2\nsamples = 65\nvalue = 5.277"] ;
10 -> 11 ;
12 [label="pH <= 3.095\nmse = 0.127\nsamples = 40\nvalue = 5.15"] ;
11 -> 12 ;
13 [label="pH <= 3.05\nmse = 0.222\nsamples = 3\nvalue = 5.667"] ;
12 -> 13 ;
14 [label="mse = 0.0\nsamples = 1\nvalue = 5.0"] ;
13 -> 14 ;
15 [label="mse = 0.0\nsamples = 2\nvalue = 6.0"] ;
13 -> 15 ;
16 [label="volatile_acidity <= 0.44\nmse = 0.096\nsamples = 37\nvalue = 5.108"] ;
12 -> 16 ;
17 [label="citric_acid <= 0.11\nmse = 0.24\nsamples = 5\nvalue = 5.4"] ;
16 -> 17 ;
18 [label="mse = 0.0\nsamples = 2\nvalue = 6.0"] ;
17 -> 18 ;
19 [label="mse = 0.0\nsamples = 3\nvalue = 5.0"] ;
17 -> 19 ;
20 [label="total_sulfur_dioxide <= 10.5\nmse = 0.059\nsamples = 32\nvalue = 5.062"] ;
16 -> 20 ;
21 [label="pH <= 3.28\nmse = 0.25\nsamples = 2\nvalue = 5.5"] ;
20 -> 21 ;
22 [label="mse = 0.0\nsamples = 1\nvalue = 6.0"] ;
21 -> 22 ;
23 [label="mse = 0.0\nsamples = 1\nvalue = 5.0"] ;
21 -> 23 ;
24 [label="fixed_acidity <= 7.65\nmse = 0.032\nsamples = 30\nvalue = 5.033"] ;
20 -> 24 ;
25 [label="mse = 0.0\nsamples = 22\nvalue = 5.0"] ;
24 -> 25 ;
26 [label="fixed_acidity <= 7.75\nmse = 0.109\nsamples = 8\nvalue = 5.125"] ;
24 -> 26 ;
27 [label="mse = 0.0\nsamples = 1\nvalue = 6.0"] ;
26 -> 27 ;
28 [label="mse = 0.0\nsamples = 7\nvalue = 5.0"] ;
26 -> 28 ;
29 [label="density <= 0.997\nmse = 0.25\nsamples = 25\nvalue = 5.48"] ;
11 -> 29 ;
30 [label="mse = 0.0\nsamples = 6\nvalue = 6.0"] ;
29 -> 30 ;
31 [label="residual_sugar <= 3.9\nmse = 0.216\nsamples = 19\nvalue = 5.316"] ;
29 -> 31 ;
32 [label="pH <= 3.54\nmse = 0.122\nsamples = 14\nvalue = 5.143"] ;
31 -> 32 ;
33 [label="fixed_acidity <= 9.15\nmse = 0.071\nsamples = 13\nvalue = 5.077"] ;
32 -> 33 ;
34 [label="mse = 0.0\nsamples = 12\nvalue = 5.0"] ;
33 -> 34 ;
35 [label="mse = 0.0\nsamples = 1\nvalue = 6.0"] ;
33 -> 35 ;
36 [label="mse = 0.0\nsamples = 1\nvalue = 6.0"] ;
32 -> 36 ;
37 [label="free_sulfur_dioxide <= 46.0\nmse = 0.16\nsamples = 5\nvalue = 5.8"] ;
31 -> 37 ;
38 [label="mse = 0.0\nsamples = 4\nvalue = 6.0"] ;
37 -> 38 ;
39 [label="mse = 0.0\nsamples = 1\nvalue = 5.0"] ;
37 -> 39 ;
40 [label="alcohol <= 9.95\nmse = 0.161\nsamples = 55\nvalue = 5.055"] ;
10 -> 40 ;
41 [label="chlorides <= 0.08\nmse = 0.13\nsamples = 50\nvalue = 5.1"] ;
40 -> 41 ;
42 [label="sulphates <= 0.5\nmse = 0.372\nsamples = 14\nvalue = 5.357"] ;
41 -> 42 ;
43 [label="density <= 0.997\nmse = 0.188\nsamples = 4\nvalue = 4.75"] ;
42 -> 43 ;
44 [label="mse = 0.0\nsamples = 1\nvalue = 4.0"] ;
43 -> 44 ;
45 [label="mse = 0.0\nsamples = 3\nvalue = 5.0"] ;
43 -> 45 ;
46 [label="free_sulfur_dioxide <= 29.5\nmse = 0.24\nsamples = 10\nvalue = 5.6"] ;
42 -> 46 ;
47 [label="alcohol <= 9.55\nmse = 0.188\nsamples = 8\nvalue = 5.75"] ;
46 -> 47 ;
48 [label="mse = 0.0\nsamples = 5\nvalue = 6.0"] ;
47 -> 48 ;
49 [label="free_sulfur_dioxide <= 19.0\nmse = 0.222\nsamples = 3\nvalue = 5.333"] ;
47 -> 49 ;
50 [label="mse = 0.0\nsamples = 1\nvalue = 6.0"] ;
49 -> 50 ;
51 [label="mse = 0.0\nsamples = 2\nvalue = 5.0"] ;
49 -> 51 ;
52 [label="mse = 0.0\nsamples = 2\nvalue = 5.0"] ;
46 -> 52 ;
53 [label="mse = 0.0\nsamples = 36\nvalue = 5.0"] ;
41 -> 53 ;
54 [label="citric_acid <= 0.315\nmse = 0.24\nsamples = 5\nvalue = 4.6"] ;
40 -> 54 ;
55 [label="mse = 0.0\nsamples = 2\nvalue = 4.0"] ;
54 -> 55 ;
56 [label="mse = 0.0\nsamples = 3\nvalue = 5.0"] ;
54 -> 56 ;
57 [label="sulphates <= 0.475\nmse = 0.248\nsamples = 35\nvalue = 5.543"] ;
3 -> 57 ;
58 [label="mse = 0.0\nsamples = 5\nvalue = 5.0"] ;
57 -> 58 ;
59 [label="volatile_acidity <= 0.56\nmse = 0.232\nsamples = 30\nvalue = 5.633"] ;
57 -> 59 ;
60 [label="density <= 0.996\nmse = 0.202\nsamples = 25\nvalue = 5.72"] ;
59 -> 60 ;
61 [label="mse = 0.0\nsamples = 11\nvalue = 6.0"] ;
60 -> 61 ;
62 [label="residual_sugar <= 3.2\nmse = 0.25\nsamples = 14\nvalue = 5.5"] ;
60 -> 62 ;
63 [label="total_sulfur_dioxide <= 15.5\nmse = 0.21\nsamples = 10\nvalue = 5.3"] ;
62 -> 63 ;
64 [label="mse = 0.0\nsamples = 2\nvalue = 6.0"] ;
63 -> 64 ;
65 [label="chlorides <= 0.092\nmse = 0.109\nsamples = 8\nvalue = 5.125"] ;
63 -> 65 ;
66 [label="mse = 0.0\nsamples = 7\nvalue = 5.0"] ;
65 -> 66 ;
67 [label="mse = 0.0\nsamples = 1\nvalue = 6.0"] ;
65 -> 67 ;
68 [label="mse = 0.0\nsamples = 4\nvalue = 6.0"] ;
62 -> 68 ;
69 [label="pH <= 3.455\nmse = 0.16\nsamples = 5\nvalue = 5.2"] ;
59 -> 69 ;
70 [label="mse = 0.0\nsamples = 4\nvalue = 5.0"] ;
69 -> 70 ;
71 [label="mse = 0.0\nsamples = 1\nvalue = 6.0"] ;
69 -> 71 ;
72 [label="chlorides <= 0.147\nmse = 0.373\nsamples = 76\nvalue = 4.908"] ;
2 -> 72 ;
73 [label="pH <= 3.585\nmse = 0.321\nsamples = 74\nvalue = 4.946"] ;
72 -> 73 ;
74 [label="alcohol <= 9.15\nmse = 0.264\nsamples = 72\nvalue = 4.986"] ;
73 -> 74 ;
75 [label="pH <= 3.34\nmse = 0.188\nsamples = 4\nvalue = 5.75"] ;
74 -> 75 ;
76 [label="mse = 0.0\nsamples = 3\nvalue = 6.0"] ;
75 -> 76 ;
77 [label="mse = 0.0\nsamples = 1\nvalue = 5.0"] ;
75 -> 77 ;
78 [label="alcohol <= 10.6\nmse = 0.232\nsamples = 68\nvalue = 4.941"] ;
74 -> 78 ;
79 [label="chlorides <= 0.063\nmse = 0.204\nsamples = 66\nvalue = 4.909"] ;
78 -> 79 ;
80 [label="mse = 0.0\nsamples = 1\nvalue = 3.0"] ;
79 -> 80 ;
81 [label="sulphates <= 0.485\nmse = 0.15\nsamples = 65\nvalue = 4.938"] ;
79 -> 81 ;
82 [label="total_sulfur_dioxide <= 28.5\nmse = 0.188\nsamples = 20\nvalue = 4.75"] ;
81 -> 82 ;
83 [label="density <= 0.996\nmse = 0.245\nsamples = 7\nvalue = 4.429"] ;
82 -> 83 ;
84 [label="mse = 0.0\nsamples = 3\nvalue = 5.0"] ;
83 -> 84 ;
85 [label="mse = 0.0\nsamples = 4\nvalue = 4.0"] ;
83 -> 85 ;
86 [label="free_sulfur_dioxide <= 11.5\nmse = 0.071\nsamples = 13\nvalue = 4.923"] ;
82 -> 86 ;
87 [label="volatile_acidity <= 0.857\nmse = 0.222\nsamples = 3\nvalue = 4.667"] ;
86 -> 87 ;
88 [label="mse = 0.0\nsamples = 1\nvalue = 4.0"] ;
87 -> 88 ;
89 [label="mse = 0.0\nsamples = 2\nvalue = 5.0"] ;
87 -> 89 ;
90 [label="mse = 0.0\nsamples = 10\nvalue = 5.0"] ;
86 -> 90 ;
91 [label="volatile_acidity <= 0.678\nmse = 0.111\nsamples = 45\nvalue = 5.022"] ;
81 -> 91 ;
92 [label="mse = 0.0\nsamples = 1\nvalue = 4.0"] ;
91 -> 92 ;
93 [label="residual_sugar <= 1.65\nmse = 0.089\nsamples = 44\nvalue = 5.045"] ;
91 -> 93 ;
94 [label="fixed_acidity <= 8.9\nmse = 0.25\nsamples = 2\nvalue = 4.5"] ;
93 -> 94 ;
95 [label="mse = 0.0\nsamples = 1\nvalue = 5.0"] ;
94 -> 95 ;
96 [label="mse = 0.0\nsamples = 1\nvalue = 4.0"] ;
94 -> 96 ;
97 [label="chlorides <= 0.071\nmse = 0.066\nsamples = 42\nvalue = 5.071"] ;
93 -> 97 ;
98 [label="mse = 0.0\nsamples = 1\nvalue = 6.0"] ;
97 -> 98 ;
99 [label="alcohol <= 9.25\nmse = 0.046\nsamples = 41\nvalue = 5.049"] ;
97 -> 99 ;
100 [label="chlorides <= 0.086\nmse = 0.222\nsamples = 3\nvalue = 5.333"] ;
99 -> 100 ;
101 [label="mse = 0.0\nsamples = 2\nvalue = 5.0"] ;
100 -> 101 ;
102 [label="mse = 0.0\nsamples = 1\nvalue = 6.0"] ;
100 -> 102 ;
103 [label="citric_acid <= 0.295\nmse = 0.026\nsamples = 38\nvalue = 5.026"] ;
99 -> 103 ;
104 [label="mse = 0.0\nsamples = 35\nvalue = 5.0"] ;
103 -> 104 ;
105 [label="sulphates <= 0.51\nmse = 0.222\nsamples = 3\nvalue = 5.333"] ;
103 -> 105 ;
106 [label="mse = 0.0\nsamples = 1\nvalue = 6.0"] ;
105 -> 106 ;
107 [label="mse = 0.0\nsamples = 2\nvalue = 5.0"] ;
105 -> 107 ;
108 [label="mse = 0.0\nsamples = 2\nvalue = 6.0"] ;
78 -> 108 ;
109 [label="density <= 0.995\nmse = 0.25\nsamples = 2\nvalue = 3.5"] ;
73 -> 109 ;
110 [label="mse = 0.0\nsamples = 1\nvalue = 4.0"] ;
109 -> 110 ;
111 [label="mse = 0.0\nsamples = 1\nvalue = 3.0"] ;
109 -> 111 ;
112 [label="fixed_acidity <= 6.25\nmse = 0.25\nsamples = 2\nvalue = 3.5"] ;
72 -> 112 ;
113 [label="mse = 0.0\nsamples = 1\nvalue = 4.0"] ;
112 -> 113 ;
114 [label="mse = 0.0\nsamples = 1\nvalue = 3.0"] ;
112 -> 114 ;
115 [label="total_sulfur_dioxide <= 47.5\nmse = 0.458\nsamples = 509\nvalue = 5.511"] ;
1 -> 115 ;
116 [label="sulphates <= 0.675\nmse = 0.482\nsamples = 294\nvalue = 5.663"] ;
115 -> 116 ;
117 [label="volatile_acidity <= 0.605\nmse = 0.408\nsamples = 177\nvalue = 5.514"] ;
116 -> 117 ;
118 [label="density <= 1.001\nmse = 0.415\nsamples = 121\nvalue = 5.628"] ;
117 -> 118 ;
119 [label="citric_acid <= 0.025\nmse = 0.36\nsamples = 119\nvalue = 5.655"] ;
118 -> 119 ;
120 [label="sulphates <= 0.575\nmse = 0.331\nsamples = 11\nvalue = 6.182"] ;
119 -> 120 ;
121 [label="residual_sugar <= 2.05\nmse = 0.188\nsamples = 4\nvalue = 6.75"] ;
120 -> 121 ;
122 [label="mse = 0.0\nsamples = 3\nvalue = 7.0"] ;
121 -> 122 ;
123 [label="mse = 0.0\nsamples = 1\nvalue = 6.0"] ;
121 -> 123 ;
124 [label="citric_acid <= 0.015\nmse = 0.122\nsamples = 7\nvalue = 5.857"] ;
120 -> 124 ;
125 [label="mse = 0.0\nsamples = 6\nvalue = 6.0"] ;
124 -> 125 ;
126 [label="mse = 0.0\nsamples = 1\nvalue = 5.0"] ;
124 -> 126 ;
127 [label="chlorides <= 0.057\nmse = 0.332\nsamples = 108\nvalue = 5.602"] ;
119 -> 127 ;
128 [label="mse = 0.0\nsamples = 1\nvalue = 7.0"] ;
127 -> 128 ;
129 [label="residual_sugar <= 1.85\nmse = 0.317\nsamples = 107\nvalue = 5.589"] ;
127 -> 129 ;
130 [label="density <= 0.995\nmse = 0.235\nsamples = 29\nvalue = 5.379"] ;
129 -> 130 ;
131 [label="mse = 0.0\nsamples = 4\nvalue = 6.0"] ;
130 -> 131 ;
132 [label="density <= 0.996\nmse = 0.202\nsamples = 25\nvalue = 5.28"] ;
130 -> 132 ;
133 [label="sulphates <= 0.635\nmse = 0.066\nsamples = 14\nvalue = 5.071"] ;
132 -> 133 ;
134 [label="mse = 0.0\nsamples = 12\nvalue = 5.0"] ;
133 -> 134 ;
135 [label="chlorides <= 0.078\nmse = 0.25\nsamples = 2\nvalue = 5.5"] ;
133 -> 135 ;
136 [label="mse = 0.0\nsamples = 1\nvalue = 5.0"] ;
135 -> 136 ;
137 [label="mse = 0.0\nsamples = 1\nvalue = 6.0"] ;
135 -> 137 ;
138 [label="residual_sugar <= 1.55\nmse = 0.248\nsamples = 11\nvalue = 5.545"] ;
132 -> 138 ;
139 [label="pH <= 3.1\nmse = 0.16\nsamples = 5\nvalue = 5.2"] ;
138 -> 139 ;
140 [label="mse = 0.0\nsamples = 1\nvalue = 6.0"] ;
139 -> 140 ;
141 [label="mse = 0.0\nsamples = 4\nvalue = 5.0"] ;
139 -> 141 ;
142 [label="fixed_acidity <= 7.65\nmse = 0.139\nsamples = 6\nvalue = 5.833"] ;
138 -> 142 ;
143 [label="mse = 0.0\nsamples = 1\nvalue = 5.0"] ;
142 -> 143 ;
144 [label="mse = 0.0\nsamples = 5\nvalue = 6.0"] ;
142 -> 144 ;
145 [label="chlorides <= 0.087\nmse = 0.325\nsamples = 78\nvalue = 5.667"] ;
129 -> 145 ;
146 [label="chlorides <= 0.08\nmse = 0.293\nsamples = 52\nvalue = 5.769"] ;
145 -> 146 ;
147 [label="total_sulfur_dioxide <= 26.0\nmse = 0.309\nsamples = 32\nvalue = 5.562"] ;
146 -> 147 ;
148 [label="chlorides <= 0.073\nmse = 0.225\nsamples = 13\nvalue = 5.923"] ;
147 -> 148 ;
149 [label="fixed_acidity <= 12.55\nmse = 0.139\nsamples = 12\nvalue = 5.833"] ;
148 -> 149 ;
150 [label="free_sulfur_dioxide <= 6.5\nmse = 0.083\nsamples = 11\nvalue = 5.909"] ;
149 -> 150 ;
151 [label="mse = 0.0\nsamples = 8\nvalue = 6.0"] ;
150 -> 151 ;
152 [label="free_sulfur_dioxide <= 7.5\nmse = 0.222\nsamples = 3\nvalue = 5.667"] ;
150 -> 152 ;
153 [label="mse = 0.0\nsamples = 1\nvalue = 5.0"] ;
152 -> 153 ;
154 [label="mse = 0.0\nsamples = 2\nvalue = 6.0"] ;
152 -> 154 ;
155 [label="mse = 0.0\nsamples = 1\nvalue = 5.0"] ;
149 -> 155 ;
156 [label="mse = 0.0\nsamples = 1\nvalue = 7.0"] ;
148 -> 156 ;
157 [label="citric_acid <= 0.115\nmse = 0.216\nsamples = 19\nvalue = 5.316"] ;
147 -> 157 ;
158 [label="volatile_acidity <= 0.485\nmse = 0.16\nsamples = 5\nvalue = 5.8"] ;
157 -> 158 ;
159 [label="pH <= 3.315\nmse = 0.25\nsamples = 2\nvalue = 5.5"] ;
158 -> 159 ;
160 [label="mse = 0.0\nsamples = 1\nvalue = 6.0"] ;
159 -> 160 ;
161 [label="mse = 0.0\nsamples = 1\nvalue = 5.0"] ;
159 -> 161 ;
162 [label="mse = 0.0\nsamples = 3\nvalue = 6.0"] ;
158 -> 162 ;
163 [label="density <= 1.0\nmse = 0.122\nsamples = 14\nvalue = 5.143"] ;
157 -> 163 ;
164 [label="mse = 0.0\nsamples = 12\nvalue = 5.0"] ;
163 -> 164 ;
165 [label="mse = 0.0\nsamples = 2\nvalue = 6.0"] ;
163 -> 165 ;
166 [label="density <= 0.997\nmse = 0.09\nsamples = 20\nvalue = 6.1"] ;
146 -> 166 ;
167 [label="citric_acid <= 0.09\nmse = 0.24\nsamples = 5\nvalue = 6.4"] ;
166 -> 167 ;
168 [label="mse = 0.0\nsamples = 3\nvalue = 6.0"] ;
167 -> 168 ;
169 [label="mse = 0.0\nsamples = 2\nvalue = 7.0"] ;
167 -> 169 ;
170 [label="mse = 0.0\nsamples = 15\nvalue = 6.0"] ;
166 -> 170 ;
171 [label="sulphates <= 0.625\nmse = 0.325\nsamples = 26\nvalue = 5.462"] ;
145 -> 171 ;
172 [label="volatile_acidity <= 0.58\nmse = 0.356\nsamples = 15\nvalue = 5.667"] ;
171 -> 172 ;
173 [label="alcohol <= 10.45\nmse = 0.331\nsamples = 13\nvalue = 5.769"] ;
172 -> 173 ;
174 [label="total_sulfur_dioxide <= 44.0\nmse = 0.29\nsamples = 10\nvalue = 5.9"] ;
173 -> 174 ;
175 [label="total_sulfur_dioxide <= 36.5\nmse = 0.173\nsamples = 9\nvalue = 5.778"] ;
174 -> 175 ;
176 [label="mse = 0.0\nsamples = 7\nvalue = 6.0"] ;
175 -> 176 ;
177 [label="mse = 0.0\nsamples = 2\nvalue = 5.0"] ;
175 -> 177 ;
178 [label="mse = 0.0\nsamples = 1\nvalue = 7.0"] ;
174 -> 178 ;
179 [label="residual_sugar <= 2.7\nmse = 0.222\nsamples = 3\nvalue = 5.333"] ;
173 -> 179 ;
180 [label="mse = 0.0\nsamples = 2\nvalue = 5.0"] ;
179 -> 180 ;
181 [label="mse = 0.0\nsamples = 1\nvalue = 6.0"] ;
179 -> 181 ;
182 [label="mse = 0.0\nsamples = 2\nvalue = 5.0"] ;
172 -> 182 ;
183 [label="pH <= 3.245\nmse = 0.149\nsamples = 11\nvalue = 5.182"] ;
171 -> 183 ;
184 [label="residual_sugar <= 2.35\nmse = 0.222\nsamples = 3\nvalue = 5.667"] ;
183 -> 184 ;
185 [label="mse = 0.0\nsamples = 1\nvalue = 5.0"] ;
184 -> 185 ;
186 [label="mse = 0.0\nsamples = 2\nvalue = 6.0"] ;
184 -> 186 ;
187 [label="mse = 0.0\nsamples = 8\nvalue = 5.0"] ;
183 -> 187 ;
188 [label="citric_acid <= 0.525\nmse = 1.0\nsamples = 2\nvalue = 4.0"] ;
118 -> 188 ;
189 [label="mse = 0.0\nsamples = 1\nvalue = 5.0"] ;
188 -> 189 ;
190 [label="mse = 0.0\nsamples = 1\nvalue = 3.0"] ;
188 -> 190 ;
191 [label="residual_sugar <= 1.55\nmse = 0.303\nsamples = 56\nvalue = 5.268"] ;
117 -> 191 ;
192 [label="mse = 0.0\nsamples = 2\nvalue = 4.0"] ;
191 -> 192 ;
193 [label="chlorides <= 0.091\nmse = 0.253\nsamples = 54\nvalue = 5.315"] ;
191 -> 193 ;
194 [label="alcohol <= 10.35\nmse = 0.199\nsamples = 39\nvalue = 5.179"] ;
193 -> 194 ;
195 [label="chlorides <= 0.063\nmse = 0.158\nsamples = 35\nvalue = 5.114"] ;
194 -> 195 ;
196 [label="mse = 0.0\nsamples = 1\nvalue = 4.0"] ;
195 -> 196 ;
197 [label="chlorides <= 0.067\nmse = 0.125\nsamples = 34\nvalue = 5.147"] ;
195 -> 197 ;
198 [label="alcohol <= 9.7\nmse = 0.222\nsamples = 3\nvalue = 5.667"] ;
197 -> 198 ;
199 [label="mse = 0.0\nsamples = 2\nvalue = 6.0"] ;
198 -> 199 ;
200 [label="mse = 0.0\nsamples = 1\nvalue = 5.0"] ;
198 -> 200 ;
201 [label="alcohol <= 9.9\nmse = 0.087\nsamples = 31\nvalue = 5.097"] ;
197 -> 201 ;
202 [label="mse = 0.0\nsamples = 22\nvalue = 5.0"] ;
201 -> 202 ;
203 [label="volatile_acidity <= 0.66\nmse = 0.222\nsamples = 9\nvalue = 5.333"] ;
201 -> 203 ;
204 [label="mse = 0.0\nsamples = 2\nvalue = 6.0"] ;
203 -> 204 ;
205 [label="sulphates <= 0.58\nmse = 0.122\nsamples = 7\nvalue = 5.143"] ;
203 -> 205 ;
206 [label="mse = 0.0\nsamples = 1\nvalue = 6.0"] ;
205 -> 206 ;
207 [label="mse = 0.0\nsamples = 6\nvalue = 5.0"] ;
205 -> 207 ;
208 [label="residual_sugar <= 2.45\nmse = 0.188\nsamples = 4\nvalue = 5.75"] ;
194 -> 208 ;
209 [label="mse = 0.0\nsamples = 3\nvalue = 6.0"] ;
208 -> 209 ;
210 [label="mse = 0.0\nsamples = 1\nvalue = 5.0"] ;
208 -> 210 ;
211 [label="density <= 0.996\nmse = 0.222\nsamples = 15\nvalue = 5.667"] ;
193 -> 211 ;
212 [label="fixed_acidity <= 6.95\nmse = 0.16\nsamples = 5\nvalue = 5.2"] ;
211 -> 212 ;
213 [label="mse = 0.0\nsamples = 1\nvalue = 6.0"] ;
212 -> 213 ;
214 [label="mse = 0.0\nsamples = 4\nvalue = 5.0"] ;
212 -> 214 ;
215 [label="pH <= 3.39\nmse = 0.09\nsamples = 10\nvalue = 5.9"] ;
211 -> 215 ;
216 [label="mse = 0.0\nsamples = 9\nvalue = 6.0"] ;
215 -> 216 ;
217 [label="mse = 0.0\nsamples = 1\nvalue = 5.0"] ;
215 -> 217 ;
218 [label="fixed_acidity <= 11.55\nmse = 0.509\nsamples = 117\nvalue = 5.889"] ;
116 -> 218 ;
219 [label="alcohol <= 9.85\nmse = 0.428\nsamples = 97\nvalue = 5.763"] ;
218 -> 219 ;
220 [label="residual_sugar <= 1.35\nmse = 0.333\nsamples = 48\nvalue = 5.521"] ;
219 -> 220 ;
221 [label="mse = 0.0\nsamples = 1\nvalue = 4.0"] ;
220 -> 221 ;
222 [label="volatile_acidity <= 0.555\nmse = 0.29\nsamples = 47\nvalue = 5.553"] ;
220 -> 222 ;
223 [label="chlorides <= 0.086\nmse = 0.29\nsamples = 28\nvalue = 5.679"] ;
222 -> 223 ;
224 [label="free_sulfur_dioxide <= 4.0\nmse = 0.196\nsamples = 15\nvalue = 5.933"] ;
223 -> 224 ;
225 [label="mse = 0.0\nsamples = 1\nvalue = 5.0"] ;
224 -> 225 ;
226 [label="chlorides <= 0.062\nmse = 0.143\nsamples = 14\nvalue = 6.0"] ;
224 -> 226 ;
227 [label="mse = 0.0\nsamples = 1\nvalue = 5.0"] ;
226 -> 227 ;
228 [label="density <= 0.997\nmse = 0.071\nsamples = 13\nvalue = 6.077"] ;
226 -> 228 ;
229 [label="mse = 0.0\nsamples = 1\nvalue = 7.0"] ;
228 -> 229 ;
230 [label="mse = 0.0\nsamples = 12\nvalue = 6.0"] ;
228 -> 230 ;
231 [label="residual_sugar <= 1.85\nmse = 0.237\nsamples = 13\nvalue = 5.385"] ;
223 -> 231 ;
232 [label="chlorides <= 0.112\nmse = 0.204\nsamples = 7\nvalue = 5.714"] ;
231 -> 232 ;
233 [label="mse = 0.0\nsamples = 1\nvalue = 5.0"] ;
232 -> 233 ;
234 [label="free_sulfur_dioxide <= 5.5\nmse = 0.139\nsamples = 6\nvalue = 5.833"] ;
232 -> 234 ;
235 [label="mse = 0.0\nsamples = 1\nvalue = 5.0"] ;
234 -> 235 ;
236 [label="mse = 0.0\nsamples = 5\nvalue = 6.0"] ;
234 -> 236 ;
237 [label="mse = 0.0\nsamples = 6\nvalue = 5.0"] ;
231 -> 237 ;
238 [label="volatile_acidity <= 0.702\nmse = 0.233\nsamples = 19\nvalue = 5.368"] ;
222 -> 238 ;
239 [label="citric_acid <= 0.04\nmse = 0.188\nsamples = 16\nvalue = 5.25"] ;
238 -> 239 ;
240 [label="mse = 0.0\nsamples = 6\nvalue = 5.0"] ;
239 -> 240 ;
241 [label="pH <= 3.315\nmse = 0.24\nsamples = 10\nvalue = 5.4"] ;
239 -> 241 ;
242 [label="volatile_acidity <= 0.665\nmse = 0.139\nsamples = 6\nvalue = 5.167"] ;
241 -> 242 ;
243 [label="mse = 0.0\nsamples = 5\nvalue = 5.0"] ;
242 -> 243 ;
244 [label="mse = 0.0\nsamples = 1\nvalue = 6.0"] ;
242 -> 244 ;
245 [label="pH <= 3.55\nmse = 0.188\nsamples = 4\nvalue = 5.75"] ;
241 -> 245 ;
246 [label="mse = 0.0\nsamples = 3\nvalue = 6.0"] ;
245 -> 246 ;
247 [label="mse = 0.0\nsamples = 1\nvalue = 5.0"] ;
245 -> 247 ;
248 [label="mse = 0.0\nsamples = 3\nvalue = 6.0"] ;
238 -> 248 ;
249 [label="pH <= 3.48\nmse = 0.408\nsamples = 49\nvalue = 6.0"] ;
219 -> 249 ;
250 [label="residual_sugar <= 3.25\nmse = 0.343\nsamples = 38\nvalue = 6.158"] ;
249 -> 250 ;
251 [label="chlorides <= 0.099\nmse = 0.299\nsamples = 33\nvalue = 6.061"] ;
250 -> 251 ;
252 [label="fixed_acidity <= 10.15\nmse = 0.212\nsamples = 29\nvalue = 6.172"] ;
251 -> 252 ;
253 [label="pH <= 3.415\nmse = 0.16\nsamples = 24\nvalue = 6.083"] ;
252 -> 253 ;
254 [label="citric_acid <= 0.505\nmse = 0.052\nsamples = 18\nvalue = 5.944"] ;
253 -> 254 ;
255 [label="mse = 0.0\nsamples = 16\nvalue = 6.0"] ;
254 -> 255 ;
256 [label="total_sulfur_dioxide <= 19.5\nmse = 0.25\nsamples = 2\nvalue = 5.5"] ;
254 -> 256 ;
257 [label="mse = 0.0\nsamples = 1\nvalue = 5.0"] ;
256 -> 257 ;
258 [label="mse = 0.0\nsamples = 1\nvalue = 6.0"] ;
256 -> 258 ;
259 [label="chlorides <= 0.072\nmse = 0.25\nsamples = 6\nvalue = 6.5"] ;
253 -> 259 ;
260 [label="mse = 0.0\nsamples = 3\nvalue = 7.0"] ;
259 -> 260 ;
261 [label="mse = 0.0\nsamples = 3\nvalue = 6.0"] ;
259 -> 261 ;
262 [label="density <= 0.998\nmse = 0.24\nsamples = 5\nvalue = 6.6"] ;
252 -> 262 ;
263 [label="mse = 0.0\nsamples = 2\nvalue = 7.0"] ;
262 -> 263 ;
264 [label="chlorides <= 0.08\nmse = 0.222\nsamples = 3\nvalue = 6.333"] ;
262 -> 264 ;
265 [label="mse = 0.0\nsamples = 2\nvalue = 6.0"] ;
264 -> 265 ;
266 [label="mse = 0.0\nsamples = 1\nvalue = 7.0"] ;
264 -> 266 ;
267 [label="free_sulfur_dioxide <= 13.5\nmse = 0.188\nsamples = 4\nvalue = 5.25"] ;
251 -> 267 ;
268 [label="mse = 0.0\nsamples = 3\nvalue = 5.0"] ;
267 -> 268 ;
269 [label="mse = 0.0\nsamples = 1\nvalue = 6.0"] ;
267 -> 269 ;
270 [label="fixed_acidity <= 10.2\nmse = 0.16\nsamples = 5\nvalue = 6.8"] ;
250 -> 270 ;
271 [label="mse = 0.0\nsamples = 4\nvalue = 7.0"] ;
270 -> 271 ;
272 [label="mse = 0.0\nsamples = 1\nvalue = 6.0"] ;
270 -> 272 ;
273 [label="total_sulfur_dioxide <= 24.0\nmse = 0.248\nsamples = 11\nvalue = 5.455"] ;
249 -> 273 ;
274 [label="mse = 0.0\nsamples = 3\nvalue = 6.0"] ;
273 -> 274 ;
275 [label="total_sulfur_dioxide <= 36.5\nmse = 0.188\nsamples = 8\nvalue = 5.25"] ;
273 -> 275 ;
276 [label="mse = 0.0\nsamples = 5\nvalue = 5.0"] ;
275 -> 276 ;
277 [label="fixed_acidity <= 6.0\nmse = 0.222\nsamples = 3\nvalue = 5.667"] ;
275 -> 277 ;
278 [label="mse = 0.0\nsamples = 1\nvalue = 5.0"] ;
277 -> 278 ;
279 [label="mse = 0.0\nsamples = 2\nvalue = 6.0"] ;
277 -> 279 ;
280 [label="density <= 0.999\nmse = 0.45\nsamples = 20\nvalue = 6.5"] ;
218 -> 280 ;
281 [label="sulphates <= 0.79\nmse = 0.16\nsamples = 5\nvalue = 7.2"] ;
280 -> 281 ;
282 [label="mse = 0.0\nsamples = 4\nvalue = 7.0"] ;
281 -> 282 ;
283 [label="mse = 0.0\nsamples = 1\nvalue = 8.0"] ;
281 -> 283 ;
284 [label="total_sulfur_dioxide <= 22.5\nmse = 0.329\nsamples = 15\nvalue = 6.267"] ;
280 -> 284 ;
285 [label="density <= 0.999\nmse = 0.139\nsamples = 6\nvalue = 5.833"] ;
284 -> 285 ;
286 [label="mse = 0.0\nsamples = 1\nvalue = 5.0"] ;
285 -> 286 ;
287 [label="mse = 0.0\nsamples = 5\nvalue = 6.0"] ;
285 -> 287 ;
288 [label="total_sulfur_dioxide <= 42.5\nmse = 0.247\nsamples = 9\nvalue = 6.556"] ;
284 -> 288 ;
289 [label="pH <= 3.16\nmse = 0.139\nsamples = 6\nvalue = 6.833"] ;
288 -> 289 ;
290 [label="mse = 0.0\nsamples = 5\nvalue = 7.0"] ;
289 -> 290 ;
291 [label="mse = 0.0\nsamples = 1\nvalue = 6.0"] ;
289 -> 291 ;
292 [label="mse = 0.0\nsamples = 3\nvalue = 6.0"] ;
288 -> 292 ;
293 [label="volatile_acidity <= 0.305\nmse = 0.35\nsamples = 215\nvalue = 5.302"] ;
115 -> 293 ;
294 [label="free_sulfur_dioxide <= 33.0\nmse = 0.188\nsamples = 8\nvalue = 6.25"] ;
293 -> 294 ;
295 [label="mse = 0.0\nsamples = 5\nvalue = 6.0"] ;
294 -> 295 ;
296 [label="sulphates <= 0.88\nmse = 0.222\nsamples = 3\nvalue = 6.667"] ;
294 -> 296 ;
297 [label="mse = 0.0\nsamples = 2\nvalue = 7.0"] ;
296 -> 297 ;
298 [label="mse = 0.0\nsamples = 1\nvalue = 6.0"] ;
296 -> 298 ;
299 [label="residual_sugar <= 1.65\nmse = 0.321\nsamples = 207\nvalue = 5.266"] ;
293 -> 299 ;
300 [label="sulphates <= 0.83\nmse = 0.413\nsamples = 11\nvalue = 4.636"] ;
299 -> 300 ;
301 [label="mse = 0.0\nsamples = 8\nvalue = 5.0"] ;
300 -> 301 ;
302 [label="total_sulfur_dioxide <= 49.5\nmse = 0.222\nsamples = 3\nvalue = 3.667"] ;
300 -> 302 ;
303 [label="mse = 0.0\nsamples = 1\nvalue = 3.0"] ;
302 -> 303 ;
304 [label="mse = 0.0\nsamples = 2\nvalue = 4.0"] ;
302 -> 304 ;
305 [label="fixed_acidity <= 9.95\nmse = 0.292\nsamples = 196\nvalue = 5.301"] ;
299 -> 305 ;
306 [label="residual_sugar <= 3.1\nmse = 0.256\nsamples = 168\nvalue = 5.244"] ;
305 -> 306 ;
307 [label="citric_acid <= 0.325\nmse = 0.267\nsamples = 142\nvalue = 5.303"] ;
306 -> 307 ;
308 [label="chlorides <= 0.065\nmse = 0.281\nsamples = 99\nvalue = 5.404"] ;
307 -> 308 ;
309 [label="total_sulfur_dioxide <= 95.5\nmse = 0.333\nsamples = 6\nvalue = 6.0"] ;
308 -> 309 ;
310 [label="citric_acid <= 0.31\nmse = 0.16\nsamples = 5\nvalue = 6.2"] ;
309 -> 310 ;
311 [label="mse = 0.0\nsamples = 4\nvalue = 6.0"] ;
310 -> 311 ;
312 [label="mse = 0.0\nsamples = 1\nvalue = 7.0"] ;
310 -> 312 ;
313 [label="mse = 0.0\nsamples = 1\nvalue = 5.0"] ;
309 -> 313 ;
314 [label="chlorides <= 0.075\nmse = 0.253\nsamples = 93\nvalue = 5.366"] ;
308 -> 314 ;
315 [label="mse = 0.0\nsamples = 13\nvalue = 5.0"] ;
314 -> 315 ;
316 [label="chlorides <= 0.097\nmse = 0.269\nsamples = 80\nvalue = 5.425"] ;
314 -> 316 ;
317 [label="chlorides <= 0.093\nmse = 0.283\nsamples = 61\nvalue = 5.508"] ;
316 -> 317 ;
318 [label="density <= 0.996\nmse = 0.246\nsamples = 55\nvalue = 5.436"] ;
317 -> 318 ;
319 [label="chlorides <= 0.076\nmse = 0.109\nsamples = 8\nvalue = 5.875"] ;
318 -> 319 ;
320 [label="mse = 0.0\nsamples = 1\nvalue = 5.0"] ;
319 -> 320 ;
321 [label="mse = 0.0\nsamples = 7\nvalue = 6.0"] ;
319 -> 321 ;
322 [label="total_sulfur_dioxide <= 108.0\nmse = 0.231\nsamples = 47\nvalue = 5.362"] ;
318 -> 322 ;
323 [label="total_sulfur_dioxide <= 60.0\nmse = 0.244\nsamples = 40\nvalue = 5.425"] ;
322 -> 323 ;
324 [label="citric_acid <= 0.245\nmse = 0.173\nsamples = 18\nvalue = 5.222"] ;
323 -> 324 ;
325 [label="residual_sugar <= 2.95\nmse = 0.071\nsamples = 13\nvalue = 5.077"] ;
324 -> 325 ;
326 [label="mse = 0.0\nsamples = 12\nvalue = 5.0"] ;
325 -> 326 ;
327 [label="mse = 0.0\nsamples = 1\nvalue = 6.0"] ;
325 -> 327 ;
328 [label="total_sulfur_dioxide <= 53.5\nmse = 0.24\nsamples = 5\nvalue = 5.6"] ;
324 -> 328 ;
329 [label="mse = 0.0\nsamples = 3\nvalue = 6.0"] ;
328 -> 329 ;
330 [label="mse = 0.0\nsamples = 2\nvalue = 5.0"] ;
328 -> 330 ;
331 [label="density <= 0.997\nmse = 0.242\nsamples = 22\nvalue = 5.591"] ;
323 -> 331 ;
332 [label="volatile_acidity <= 0.645\nmse = 0.196\nsamples = 15\nvalue = 5.733"] ;
331 -> 332 ;
333 [label="residual_sugar <= 1.85\nmse = 0.083\nsamples = 11\nvalue = 5.909"] ;
332 -> 333 ;
334 [label="alcohol <= 9.4\nmse = 0.25\nsamples = 2\nvalue = 5.5"] ;
333 -> 334 ;
335 [label="mse = 0.0\nsamples = 1\nvalue = 5.0"] ;
334 -> 335 ;
336 [label="mse = 0.0\nsamples = 1\nvalue = 6.0"] ;
334 -> 336 ;
337 [label="mse = 0.0\nsamples = 9\nvalue = 6.0"] ;
333 -> 337 ;
338 [label="citric_acid <= 0.175\nmse = 0.188\nsamples = 4\nvalue = 5.25"] ;
332 -> 338 ;
339 [label="mse = 0.0\nsamples = 3\nvalue = 5.0"] ;
338 -> 339 ;
340 [label="mse = 0.0\nsamples = 1\nvalue = 6.0"] ;
338 -> 340 ;
341 [label="density <= 0.998\nmse = 0.204\nsamples = 7\nvalue = 5.286"] ;
331 -> 341 ;
342 [label="mse = 0.0\nsamples = 5\nvalue = 5.0"] ;
341 -> 342 ;
343 [label="mse = 0.0\nsamples = 2\nvalue = 6.0"] ;
341 -> 343 ;
344 [label="mse = 0.0\nsamples = 7\nvalue = 5.0"] ;
322 -> 344 ;
345 [label="volatile_acidity <= 0.42\nmse = 0.139\nsamples = 6\nvalue = 6.167"] ;
317 -> 345 ;
346 [label="mse = 0.0\nsamples = 1\nvalue = 7.0"] ;
345 -> 346 ;
347 [label="mse = 0.0\nsamples = 5\nvalue = 6.0"] ;
345 -> 347 ;
348 [label="fixed_acidity <= 7.05\nmse = 0.133\nsamples = 19\nvalue = 5.158"] ;
316 -> 348 ;
349 [label="mse = 0.0\nsamples = 2\nvalue = 6.0"] ;
348 -> 349 ;
350 [label="sulphates <= 1.615\nmse = 0.055\nsamples = 17\nvalue = 5.059"] ;
348 -> 350 ;
351 [label="mse = 0.0\nsamples = 16\nvalue = 5.0"] ;
350 -> 351 ;
352 [label="mse = 0.0\nsamples = 1\nvalue = 6.0"] ;
350 -> 352 ;
353 [label="sulphates <= 1.32\nmse = 0.158\nsamples = 43\nvalue = 5.07"] ;
307 -> 353 ;
354 [label="alcohol <= 8.85\nmse = 0.121\nsamples = 41\nvalue = 5.024"] ;
353 -> 354 ;
355 [label="mse = 0.0\nsamples = 1\nvalue = 6.0"] ;
354 -> 355 ;
356 [label="chlorides <= 0.073\nmse = 0.1\nsamples = 40\nvalue = 5.0"] ;
354 -> 356 ;
357 [label="free_sulfur_dioxide <= 21.5\nmse = 0.25\nsamples = 2\nvalue = 4.5"] ;
356 -> 357 ;
358 [label="mse = 0.0\nsamples = 1\nvalue = 5.0"] ;
357 -> 358 ;
359 [label="mse = 0.0\nsamples = 1\nvalue = 4.0"] ;
357 -> 359 ;
360 [label="alcohol <= 10.25\nmse = 0.078\nsamples = 38\nvalue = 5.026"] ;
356 -> 360 ;
361 [label="volatile_acidity <= 0.355\nmse = 0.052\nsamples = 36\nvalue = 5.056"] ;
360 -> 361 ;
362 [label="citric_acid <= 0.455\nmse = 0.25\nsamples = 2\nvalue = 5.5"] ;
361 -> 362 ;
363 [label="mse = 0.0\nsamples = 1\nvalue = 6.0"] ;
362 -> 363 ;
364 [label="mse = 0.0\nsamples = 1\nvalue = 5.0"] ;
362 -> 364 ;
365 [label="density <= 0.998\nmse = 0.029\nsamples = 34\nvalue = 5.029"] ;
361 -> 365 ;
366 [label="mse = 0.0\nsamples = 31\nvalue = 5.0"] ;
365 -> 366 ;
367 [label="sulphates <= 0.595\nmse = 0.222\nsamples = 3\nvalue = 5.333"] ;
365 -> 367 ;
368 [label="mse = 0.0\nsamples = 2\nvalue = 5.0"] ;
367 -> 368 ;
369 [label="mse = 0.0\nsamples = 1\nvalue = 6.0"] ;
367 -> 369 ;
370 [label="chlorides <= 0.082\nmse = 0.25\nsamples = 2\nvalue = 4.5"] ;
360 -> 370 ;
371 [label="mse = 0.0\nsamples = 1\nvalue = 5.0"] ;
370 -> 371 ;
372 [label="mse = 0.0\nsamples = 1\nvalue = 4.0"] ;
370 -> 372 ;
373 [label="mse = 0.0\nsamples = 2\nvalue = 6.0"] ;
353 -> 373 ;
374 [label="sulphates <= 1.585\nmse = 0.071\nsamples = 26\nvalue = 4.923"] ;
306 -> 374 ;
375 [label="pH <= 3.53\nmse = 0.038\nsamples = 25\nvalue = 4.96"] ;
374 -> 375 ;
376 [label="mse = 0.0\nsamples = 24\nvalue = 5.0"] ;
375 -> 376 ;
377 [label="mse = 0.0\nsamples = 1\nvalue = 4.0"] ;
375 -> 377 ;
378 [label="mse = 0.0\nsamples = 1\nvalue = 4.0"] ;
374 -> 378 ;
379 [label="fixed_acidity <= 10.65\nmse = 0.372\nsamples = 28\nvalue = 5.643"] ;
305 -> 379 ;
380 [label="free_sulfur_dioxide <= 20.5\nmse = 0.221\nsamples = 17\nvalue = 5.882"] ;
379 -> 380 ;
381 [label="density <= 0.999\nmse = 0.109\nsamples = 8\nvalue = 6.125"] ;
380 -> 381 ;
382 [label="mse = 0.0\nsamples = 1\nvalue = 7.0"] ;
381 -> 382 ;
383 [label="mse = 0.0\nsamples = 7\nvalue = 6.0"] ;
381 -> 383 ;
384 [label="sulphates <= 0.685\nmse = 0.222\nsamples = 9\nvalue = 5.667"] ;
380 -> 384 ;
385 [label="chlorides <= 0.078\nmse = 0.188\nsamples = 4\nvalue = 5.25"] ;
384 -> 385 ;
386 [label="mse = 0.0\nsamples = 1\nvalue = 6.0"] ;
385 -> 386 ;
387 [label="mse = 0.0\nsamples = 3\nvalue = 5.0"] ;
385 -> 387 ;
388 [label="mse = 0.0\nsamples = 5\nvalue = 6.0"] ;
384 -> 388 ;
389 [label="sulphates <= 0.745\nmse = 0.38\nsamples = 11\nvalue = 5.273"] ;
379 -> 389 ;
390 [label="total_sulfur_dioxide <= 49.5\nmse = 0.16\nsamples = 5\nvalue = 4.8"] ;
389 -> 390 ;
391 [label="mse = 0.0\nsamples = 1\nvalue = 4.0"] ;
390 -> 391 ;
392 [label="mse = 0.0\nsamples = 4\nvalue = 5.0"] ;
390 -> 392 ;
393 [label="density <= 0.999\nmse = 0.222\nsamples = 6\nvalue = 5.667"] ;
389 -> 393 ;
394 [label="total_sulfur_dioxide <= 54.5\nmse = 0.222\nsamples = 3\nvalue = 5.333"] ;
393 -> 394 ;
395 [label="mse = 0.0\nsamples = 1\nvalue = 6.0"] ;
394 -> 395 ;
396 [label="mse = 0.0\nsamples = 2\nvalue = 5.0"] ;
394 -> 396 ;
397 [label="mse = 0.0\nsamples = 3\nvalue = 6.0"] ;
393 -> 397 ;
398 [label="sulphates <= 0.625\nmse = 0.716\nsamples = 375\nvalue = 6.131"] ;
0 -> 398 [labeldistance=2.5, labelangle=-45, headlabel="False"] ;
399 [label="volatile_acidity <= 1.015\nmse = 0.657\nsamples = 144\nvalue = 5.694"] ;
398 -> 399 ;
400 [label="alcohol <= 11.45\nmse = 0.506\nsamples = 136\nvalue = 5.787"] ;
399 -> 400 ;
401 [label="pH <= 3.365\nmse = 0.472\nsamples = 63\nvalue = 5.476"] ;
400 -> 401 ;
402 [label="chlorides <= 0.06\nmse = 0.379\nsamples = 30\nvalue = 5.767"] ;
401 -> 402 ;
403 [label="mse = 0.0\nsamples = 4\nvalue = 5.0"] ;
402 -> 403 ;
404 [label="chlorides <= 0.068\nmse = 0.333\nsamples = 26\nvalue = 5.885"] ;
402 -> 404 ;
405 [label="citric_acid <= 0.17\nmse = 0.188\nsamples = 4\nvalue = 6.75"] ;
404 -> 405 ;
406 [label="mse = 0.0\nsamples = 1\nvalue = 6.0"] ;
405 -> 406 ;
407 [label="mse = 0.0\nsamples = 3\nvalue = 7.0"] ;
405 -> 407 ;
408 [label="pH <= 3.325\nmse = 0.198\nsamples = 22\nvalue = 5.727"] ;
404 -> 408 ;
409 [label="pH <= 3.295\nmse = 0.245\nsamples = 14\nvalue = 5.571"] ;
408 -> 409 ;
410 [label="density <= 1.0\nmse = 0.222\nsamples = 12\nvalue = 5.667"] ;
409 -> 410 ;
411 [label="sulphates <= 0.565\nmse = 0.198\nsamples = 11\nvalue = 5.727"] ;
410 -> 411 ;
412 [label="total_sulfur_dioxide <= 37.0\nmse = 0.222\nsamples = 3\nvalue = 5.333"] ;
411 -> 412 ;
413 [label="mse = 0.0\nsamples = 1\nvalue = 6.0"] ;
412 -> 413 ;
414 [label="mse = 0.0\nsamples = 2\nvalue = 5.0"] ;
412 -> 414 ;
415 [label="citric_acid <= 0.6\nmse = 0.109\nsamples = 8\nvalue = 5.875"] ;
411 -> 415 ;
416 [label="mse = 0.0\nsamples = 6\nvalue = 6.0"] ;
415 -> 416 ;
417 [label="citric_acid <= 0.67\nmse = 0.25\nsamples = 2\nvalue = 5.5"] ;
415 -> 417 ;
418 [label="mse = 0.0\nsamples = 1\nvalue = 5.0"] ;
417 -> 418 ;
419 [label="mse = 0.0\nsamples = 1\nvalue = 6.0"] ;
417 -> 419 ;
420 [label="mse = 0.0\nsamples = 1\nvalue = 5.0"] ;
410 -> 420 ;
421 [label="mse = 0.0\nsamples = 2\nvalue = 5.0"] ;
409 -> 421 ;
422 [label="mse = 0.0\nsamples = 8\nvalue = 6.0"] ;
408 -> 422 ;
423 [label="sulphates <= 0.585\nmse = 0.41\nsamples = 33\nvalue = 5.212"] ;
401 -> 423 ;
424 [label="pH <= 3.445\nmse = 0.348\nsamples = 23\nvalue = 5.0"] ;
423 -> 424 ;
425 [label="sulphates <= 0.565\nmse = 0.247\nsamples = 9\nvalue = 4.556"] ;
424 -> 425 ;
426 [label="citric_acid <= 0.085\nmse = 0.139\nsamples = 6\nvalue = 4.833"] ;
425 -> 426 ;
427 [label="mse = 0.0\nsamples = 4\nvalue = 5.0"] ;
426 -> 427 ;
428 [label="density <= 0.996\nmse = 0.25\nsamples = 2\nvalue = 4.5"] ;
426 -> 428 ;
429 [label="mse = 0.0\nsamples = 1\nvalue = 4.0"] ;
428 -> 429 ;
430 [label="mse = 0.0\nsamples = 1\nvalue = 5.0"] ;
428 -> 430 ;
431 [label="mse = 0.0\nsamples = 3\nvalue = 4.0"] ;
425 -> 431 ;
432 [label="free_sulfur_dioxide <= 12.5\nmse = 0.204\nsamples = 14\nvalue = 5.286"] ;
424 -> 432 ;
433 [label="volatile_acidity <= 0.89\nmse = 0.099\nsamples = 9\nvalue = 5.111"] ;
432 -> 433 ;
434 [label="mse = 0.0\nsamples = 8\nvalue = 5.0"] ;
433 -> 434 ;
435 [label="mse = 0.0\nsamples = 1\nvalue = 6.0"] ;
433 -> 435 ;
436 [label="alcohol <= 11.15\nmse = 0.24\nsamples = 5\nvalue = 5.6"] ;
432 -> 436 ;
437 [label="mse = 0.0\nsamples = 2\nvalue = 5.0"] ;
436 -> 437 ;
438 [label="mse = 0.0\nsamples = 3\nvalue = 6.0"] ;
436 -> 438 ;
439 [label="residual_sugar <= 2.0\nmse = 0.21\nsamples = 10\nvalue = 5.7"] ;
423 -> 439 ;
440 [label="mse = 0.0\nsamples = 2\nvalue = 5.0"] ;
439 -> 440 ;
441 [label="residual_sugar <= 2.55\nmse = 0.109\nsamples = 8\nvalue = 5.875"] ;
439 -> 441 ;
442 [label="mse = 0.0\nsamples = 7\nvalue = 6.0"] ;
441 -> 442 ;
443 [label="mse = 0.0\nsamples = 1\nvalue = 5.0"] ;
441 -> 443 ;
444 [label="volatile_acidity <= 0.565\nmse = 0.381\nsamples = 73\nvalue = 6.055"] ;
400 -> 444 ;
445 [label="residual_sugar <= 3.9\nmse = 0.218\nsamples = 48\nvalue = 6.229"] ;
444 -> 445 ;
446 [label="citric_acid <= 0.67\nmse = 0.177\nsamples = 40\nvalue = 6.15"] ;
445 -> 446 ;
447 [label="sulphates <= 0.415\nmse = 0.147\nsamples = 39\nvalue = 6.179"] ;
446 -> 447 ;
448 [label="mse = 0.0\nsamples = 1\nvalue = 7.0"] ;
447 -> 448 ;
449 [label="sulphates <= 0.575\nmse = 0.133\nsamples = 38\nvalue = 6.158"] ;
447 -> 449 ;
450 [label="total_sulfur_dioxide <= 8.5\nmse = 0.042\nsamples = 23\nvalue = 6.043"] ;
449 -> 450 ;
451 [label="fixed_acidity <= 9.05\nmse = 0.25\nsamples = 2\nvalue = 6.5"] ;
450 -> 451 ;
452 [label="mse = 0.0\nsamples = 1\nvalue = 7.0"] ;
451 -> 452 ;
453 [label="mse = 0.0\nsamples = 1\nvalue = 6.0"] ;
451 -> 453 ;
454 [label="mse = 0.0\nsamples = 21\nvalue = 6.0"] ;
450 -> 454 ;
455 [label="pH <= 3.29\nmse = 0.222\nsamples = 15\nvalue = 6.333"] ;
449 -> 455 ;
456 [label="mse = 0.0\nsamples = 3\nvalue = 7.0"] ;
455 -> 456 ;
457 [label="residual_sugar <= 1.65\nmse = 0.139\nsamples = 12\nvalue = 6.167"] ;
455 -> 457 ;
458 [label="mse = 0.0\nsamples = 1\nvalue = 7.0"] ;
457 -> 458 ;
459 [label="volatile_acidity <= 0.55\nmse = 0.083\nsamples = 11\nvalue = 6.091"] ;
457 -> 459 ;
460 [label="mse = 0.0\nsamples = 10\nvalue = 6.0"] ;
459 -> 460 ;
461 [label="mse = 0.0\nsamples = 1\nvalue = 7.0"] ;
459 -> 461 ;
462 [label="mse = 0.0\nsamples = 1\nvalue = 5.0"] ;
446 -> 462 ;
463 [label="free_sulfur_dioxide <= 8.5\nmse = 0.234\nsamples = 8\nvalue = 6.625"] ;
445 -> 463 ;
464 [label="mse = 0.0\nsamples = 4\nvalue = 7.0"] ;
463 -> 464 ;
465 [label="volatile_acidity <= 0.345\nmse = 0.188\nsamples = 4\nvalue = 6.25"] ;
463 -> 465 ;
466 [label="mse = 0.0\nsamples = 1\nvalue = 7.0"] ;
465 -> 466 ;
467 [label="mse = 0.0\nsamples = 3\nvalue = 6.0"] ;
465 -> 467 ;
468 [label="volatile_acidity <= 0.585\nmse = 0.522\nsamples = 25\nvalue = 5.72"] ;
444 -> 468 ;
469 [label="citric_acid <= 0.1\nmse = 0.222\nsamples = 3\nvalue = 4.667"] ;
468 -> 469 ;
470 [label="mse = 0.0\nsamples = 1\nvalue = 4.0"] ;
469 -> 470 ;
471 [label="mse = 0.0\nsamples = 2\nvalue = 5.0"] ;
469 -> 471 ;
472 [label="chlorides <= 0.057\nmse = 0.39\nsamples = 22\nvalue = 5.864"] ;
468 -> 472 ;
473 [label="volatile_acidity <= 0.705\nmse = 0.556\nsamples = 6\nvalue = 5.333"] ;
472 -> 473 ;
474 [label="residual_sugar <= 3.45\nmse = 0.222\nsamples = 3\nvalue = 4.667"] ;
473 -> 474 ;
475 [label="mse = 0.0\nsamples = 2\nvalue = 5.0"] ;
474 -> 475 ;
476 [label="mse = 0.0\nsamples = 1\nvalue = 4.0"] ;
474 -> 476 ;
477 [label="mse = 0.0\nsamples = 3\nvalue = 6.0"] ;
473 -> 477 ;
478 [label="volatile_acidity <= 0.595\nmse = 0.184\nsamples = 16\nvalue = 6.062"] ;
472 -> 478 ;
479 [label="mse = 0.0\nsamples = 1\nvalue = 7.0"] ;
478 -> 479 ;
480 [label="free_sulfur_dioxide <= 31.5\nmse = 0.133\nsamples = 15\nvalue = 6.0"] ;
478 -> 480 ;
481 [label="free_sulfur_dioxide <= 27.5\nmse = 0.066\nsamples = 14\nvalue = 5.929"] ;
480 -> 481 ;
482 [label="mse = 0.0\nsamples = 12\nvalue = 6.0"] ;
481 -> 482 ;
483 [label="volatile_acidity <= 0.755\nmse = 0.25\nsamples = 2\nvalue = 5.5"] ;
481 -> 483 ;
484 [label="mse = 0.0\nsamples = 1\nvalue = 6.0"] ;
483 -> 484 ;
485 [label="mse = 0.0\nsamples = 1\nvalue = 5.0"] ;
483 -> 485 ;
486 [label="mse = 0.0\nsamples = 1\nvalue = 7.0"] ;
480 -> 486 ;
487 [label="residual_sugar <= 1.9\nmse = 0.609\nsamples = 8\nvalue = 4.125"] ;
399 -> 487 ;
488 [label="mse = 0.0\nsamples = 3\nvalue = 5.0"] ;
487 -> 488 ;
489 [label="fixed_acidity <= 7.55\nmse = 0.24\nsamples = 5\nvalue = 3.6"] ;
487 -> 489 ;
490 [label="mse = 0.0\nsamples = 3\nvalue = 4.0"] ;
489 -> 490 ;
491 [label="mse = 0.0\nsamples = 2\nvalue = 3.0"] ;
489 -> 491 ;
492 [label="alcohol <= 11.55\nmse = 0.561\nsamples = 231\nvalue = 6.403"] ;
398 -> 492 ;
493 [label="volatile_acidity <= 0.395\nmse = 0.536\nsamples = 126\nvalue = 6.167"] ;
492 -> 493 ;
494 [label="total_sulfur_dioxide <= 47.5\nmse = 0.543\nsamples = 54\nvalue = 6.556"] ;
493 -> 494 ;
495 [label="citric_acid <= 0.315\nmse = 0.352\nsamples = 37\nvalue = 6.838"] ;
494 -> 495 ;
496 [label="mse = 0.0\nsamples = 2\nvalue = 8.0"] ;
495 -> 496 ;
497 [label="fixed_acidity <= 10.6\nmse = 0.291\nsamples = 35\nvalue = 6.771"] ;
495 -> 497 ;
498 [label="alcohol <= 11.35\nmse = 0.222\nsamples = 30\nvalue = 6.667"] ;
497 -> 498 ;
499 [label="volatile_acidity <= 0.305\nmse = 0.192\nsamples = 27\nvalue = 6.741"] ;
498 -> 499 ;
500 [label="citric_acid <= 0.47\nmse = 0.24\nsamples = 10\nvalue = 6.4"] ;
499 -> 500 ;
501 [label="pH <= 3.235\nmse = 0.222\nsamples = 6\nvalue = 6.667"] ;
500 -> 501 ;
502 [label="fixed_acidity <= 9.65\nmse = 0.222\nsamples = 3\nvalue = 6.333"] ;
501 -> 502 ;
503 [label="mse = 0.0\nsamples = 2\nvalue = 6.0"] ;
502 -> 503 ;
504 [label="mse = 0.0\nsamples = 1\nvalue = 7.0"] ;
502 -> 504 ;
505 [label="mse = 0.0\nsamples = 3\nvalue = 7.0"] ;
501 -> 505 ;
506 [label="mse = 0.0\nsamples = 4\nvalue = 6.0"] ;
500 -> 506 ;
507 [label="total_sulfur_dioxide <= 45.5\nmse = 0.055\nsamples = 17\nvalue = 6.941"] ;
499 -> 507 ;
508 [label="mse = 0.0\nsamples = 16\nvalue = 7.0"] ;
507 -> 508 ;
509 [label="mse = 0.0\nsamples = 1\nvalue = 6.0"] ;
507 -> 509 ;
510 [label="mse = 0.0\nsamples = 3\nvalue = 6.0"] ;
498 -> 510 ;
511 [label="fixed_acidity <= 10.9\nmse = 0.24\nsamples = 5\nvalue = 7.4"] ;
497 -> 511 ;
512 [label="mse = 0.0\nsamples = 2\nvalue = 8.0"] ;
511 -> 512 ;
513 [label="mse = 0.0\nsamples = 3\nvalue = 7.0"] ;
511 -> 513 ;
514 [label="density <= 0.997\nmse = 0.408\nsamples = 17\nvalue = 5.941"] ;
494 -> 514 ;
515 [label="fixed_acidity <= 8.05\nmse = 0.293\nsamples = 15\nvalue = 5.8"] ;
514 -> 515 ;
516 [label="alcohol <= 11.35\nmse = 0.222\nsamples = 6\nvalue = 5.333"] ;
515 -> 516 ;
517 [label="mse = 0.0\nsamples = 4\nvalue = 5.0"] ;
516 -> 517 ;
518 [label="mse = 0.0\nsamples = 2\nvalue = 6.0"] ;
516 -> 518 ;
519 [label="pH <= 3.19\nmse = 0.099\nsamples = 9\nvalue = 6.111"] ;
515 -> 519 ;
520 [label="mse = 0.0\nsamples = 1\nvalue = 7.0"] ;
519 -> 520 ;
521 [label="mse = 0.0\nsamples = 8\nvalue = 6.0"] ;
519 -> 521 ;
522 [label="mse = 0.0\nsamples = 2\nvalue = 7.0"] ;
514 -> 522 ;
523 [label="volatile_acidity <= 0.905\nmse = 0.332\nsamples = 72\nvalue = 5.875"] ;
493 -> 523 ;
524 [label="pH <= 2.935\nmse = 0.229\nsamples = 69\nvalue = 5.942"] ;
523 -> 524 ;
525 [label="mse = 0.0\nsamples = 2\nvalue = 5.0"] ;
524 -> 525 ;
526 [label="pH <= 3.055\nmse = 0.208\nsamples = 67\nvalue = 5.97"] ;
524 -> 526 ;
527 [label="mse = 0.0\nsamples = 2\nvalue = 7.0"] ;
526 -> 527 ;
528 [label="density <= 0.996\nmse = 0.181\nsamples = 65\nvalue = 5.938"] ;
526 -> 528 ;
529 [label="citric_acid <= 0.29\nmse = 0.078\nsamples = 35\nvalue = 6.086"] ;
528 -> 529 ;
530 [label="chlorides <= 0.119\nmse = 0.032\nsamples = 30\nvalue = 6.033"] ;
529 -> 530 ;
531 [label="mse = 0.0\nsamples = 27\nvalue = 6.0"] ;
530 -> 531 ;
532 [label="residual_sugar <= 2.5\nmse = 0.222\nsamples = 3\nvalue = 6.333"] ;
530 -> 532 ;
533 [label="mse = 0.0\nsamples = 1\nvalue = 7.0"] ;
532 -> 533 ;
534 [label="mse = 0.0\nsamples = 2\nvalue = 6.0"] ;
532 -> 534 ;
535 [label="residual_sugar <= 2.25\nmse = 0.24\nsamples = 5\nvalue = 6.4"] ;
529 -> 535 ;
536 [label="free_sulfur_dioxide <= 14.5\nmse = 0.222\nsamples = 3\nvalue = 6.667"] ;
535 -> 536 ;
537 [label="mse = 0.0\nsamples = 2\nvalue = 7.0"] ;
536 -> 537 ;
538 [label="mse = 0.0\nsamples = 1\nvalue = 6.0"] ;
536 -> 538 ;
539 [label="mse = 0.0\nsamples = 2\nvalue = 6.0"] ;
535 -> 539 ;
540 [label="chlorides <= 0.096\nmse = 0.246\nsamples = 30\nvalue = 5.767"] ;
528 -> 540 ;
541 [label="pH <= 3.515\nmse = 0.141\nsamples = 21\nvalue = 5.952"] ;
540 -> 541 ;
542 [label="total_sulfur_dioxide <= 69.0\nmse = 0.09\nsamples = 20\nvalue = 5.9"] ;
541 -> 542 ;
543 [label="sulphates <= 0.85\nmse = 0.05\nsamples = 19\nvalue = 5.947"] ;
542 -> 543 ;
544 [label="mse = 0.0\nsamples = 18\nvalue = 6.0"] ;
543 -> 544 ;
545 [label="mse = 0.0\nsamples = 1\nvalue = 5.0"] ;
543 -> 545 ;
546 [label="mse = 0.0\nsamples = 1\nvalue = 5.0"] ;
542 -> 546 ;
547 [label="mse = 0.0\nsamples = 1\nvalue = 7.0"] ;
541 -> 547 ;
548 [label="total_sulfur_dioxide <= 60.5\nmse = 0.222\nsamples = 9\nvalue = 5.333"] ;
540 -> 548 ;
549 [label="mse = 0.0\nsamples = 5\nvalue = 5.0"] ;
548 -> 549 ;
550 [label="sulphates <= 0.695\nmse = 0.188\nsamples = 4\nvalue = 5.75"] ;
548 -> 550 ;
551 [label="mse = 0.0\nsamples = 1\nvalue = 5.0"] ;
550 -> 551 ;
552 [label="mse = 0.0\nsamples = 3\nvalue = 6.0"] ;
550 -> 552 ;
553 [label="fixed_acidity <= 6.2\nmse = 0.222\nsamples = 3\nvalue = 4.333"] ;
523 -> 553 ;
554 [label="mse = 0.0\nsamples = 1\nvalue = 5.0"] ;
553 -> 554 ;
555 [label="mse = 0.0\nsamples = 2\nvalue = 4.0"] ;
553 -> 555 ;
556 [label="total_sulfur_dioxide <= 94.0\nmse = 0.444\nsamples = 105\nvalue = 6.686"] ;
492 -> 556 ;
557 [label="total_sulfur_dioxide <= 19.5\nmse = 0.395\nsamples = 102\nvalue = 6.725"] ;
556 -> 557 ;
558 [label="residual_sugar <= 4.95\nmse = 0.375\nsamples = 32\nvalue = 7.0"] ;
557 -> 558 ;
559 [label="free_sulfur_dioxide <= 5.5\nmse = 0.34\nsamples = 29\nvalue = 6.931"] ;
558 -> 559 ;
560 [label="sulphates <= 0.83\nmse = 0.222\nsamples = 12\nvalue = 6.667"] ;
559 -> 560 ;
561 [label="total_sulfur_dioxide <= 7.5\nmse = 0.16\nsamples = 10\nvalue = 6.8"] ;
560 -> 561 ;
562 [label="mse = 0.0\nsamples = 1\nvalue = 6.0"] ;
561 -> 562 ;
563 [label="sulphates <= 0.725\nmse = 0.099\nsamples = 9\nvalue = 6.889"] ;
561 -> 563 ;
564 [label="mse = 0.0\nsamples = 7\nvalue = 7.0"] ;
563 -> 564 ;
565 [label="volatile_acidity <= 0.365\nmse = 0.25\nsamples = 2\nvalue = 6.5"] ;
563 -> 565 ;
566 [label="mse = 0.0\nsamples = 1\nvalue = 7.0"] ;
565 -> 566 ;
567 [label="mse = 0.0\nsamples = 1\nvalue = 6.0"] ;
565 -> 567 ;
568 [label="mse = 0.0\nsamples = 2\nvalue = 6.0"] ;
560 -> 568 ;
569 [label="alcohol <= 13.55\nmse = 0.339\nsamples = 17\nvalue = 7.118"] ;
559 -> 569 ;
570 [label="density <= 0.995\nmse = 0.277\nsamples = 16\nvalue = 7.188"] ;
569 -> 570 ;
571 [label="chlorides <= 0.061\nmse = 0.24\nsamples = 5\nvalue = 7.6"] ;
570 -> 571 ;
572 [label="mse = 0.0\nsamples = 2\nvalue = 7.0"] ;
571 -> 572 ;
573 [label="mse = 0.0\nsamples = 3\nvalue = 8.0"] ;
571 -> 573 ;
574 [label="density <= 0.996\nmse = 0.182\nsamples = 11\nvalue = 7.0"] ;
570 -> 574 ;
575 [label="citric_acid <= 0.335\nmse = 0.25\nsamples = 2\nvalue = 6.5"] ;
574 -> 575 ;
576 [label="mse = 0.0\nsamples = 1\nvalue = 7.0"] ;
575 -> 576 ;
577 [label="mse = 0.0\nsamples = 1\nvalue = 6.0"] ;
575 -> 577 ;
578 [label="residual_sugar <= 2.75\nmse = 0.099\nsamples = 9\nvalue = 7.111"] ;
574 -> 578 ;
579 [label="mse = 0.0\nsamples = 6\nvalue = 7.0"] ;
578 -> 579 ;
580 [label="sulphates <= 0.875\nmse = 0.222\nsamples = 3\nvalue = 7.333"] ;
578 -> 580 ;
581 [label="mse = 0.0\nsamples = 2\nvalue = 7.0"] ;
580 -> 581 ;
582 [label="mse = 0.0\nsamples = 1\nvalue = 8.0"] ;
580 -> 582 ;
583 [label="mse = 0.0\nsamples = 1\nvalue = 6.0"] ;
569 -> 583 ;
584 [label="residual_sugar <= 6.55\nmse = 0.222\nsamples = 3\nvalue = 7.667"] ;
558 -> 584 ;
585 [label="mse = 0.0\nsamples = 2\nvalue = 8.0"] ;
584 -> 585 ;
586 [label="mse = 0.0\nsamples = 1\nvalue = 7.0"] ;
584 -> 586 ;
587 [label="sulphates <= 0.695\nmse = 0.354\nsamples = 70\nvalue = 6.6"] ;
557 -> 587 ;
588 [label="free_sulfur_dioxide <= 35.5\nmse = 0.298\nsamples = 17\nvalue = 6.235"] ;
587 -> 588 ;
589 [label="pH <= 3.7\nmse = 0.109\nsamples = 16\nvalue = 6.125"] ;
588 -> 589 ;
590 [label="volatile_acidity <= 0.33\nmse = 0.062\nsamples = 15\nvalue = 6.067"] ;
589 -> 590 ;
591 [label="alcohol <= 11.9\nmse = 0.25\nsamples = 2\nvalue = 6.5"] ;
590 -> 591 ;
592 [label="mse = 0.0\nsamples = 1\nvalue = 6.0"] ;
591 -> 592 ;
593 [label="mse = 0.0\nsamples = 1\nvalue = 7.0"] ;
591 -> 593 ;
594 [label="mse = 0.0\nsamples = 13\nvalue = 6.0"] ;
590 -> 594 ;
595 [label="mse = 0.0\nsamples = 1\nvalue = 7.0"] ;
589 -> 595 ;
596 [label="mse = 0.0\nsamples = 1\nvalue = 8.0"] ;
588 -> 596 ;
597 [label="citric_acid <= 0.76\nmse = 0.316\nsamples = 53\nvalue = 6.717"] ;
587 -> 597 ;
598 [label="density <= 0.991\nmse = 0.264\nsamples = 52\nvalue = 6.75"] ;
597 -> 598 ;
599 [label="mse = 0.0\nsamples = 1\nvalue = 8.0"] ;
598 -> 599 ;
600 [label="free_sulfur_dioxide <= 18.5\nmse = 0.238\nsamples = 51\nvalue = 6.725"] ;
598 -> 600 ;
601 [label="free_sulfur_dioxide <= 6.5\nmse = 0.096\nsamples = 28\nvalue = 6.893"] ;
600 -> 601 ;
602 [label="total_sulfur_dioxide <= 25.5\nmse = 0.222\nsamples = 3\nvalue = 6.333"] ;
601 -> 602 ;
603 [label="mse = 0.0\nsamples = 2\nvalue = 6.0"] ;
602 -> 603 ;
604 [label="mse = 0.0\nsamples = 1\nvalue = 7.0"] ;
602 -> 604 ;
605 [label="volatile_acidity <= 0.215\nmse = 0.038\nsamples = 25\nvalue = 6.96"] ;
601 -> 605 ;
606 [label="total_sulfur_dioxide <= 39.5\nmse = 0.25\nsamples = 2\nvalue = 6.5"] ;
605 -> 606 ;
607 [label="mse = 0.0\nsamples = 1\nvalue = 7.0"] ;
606 -> 607 ;
608 [label="mse = 0.0\nsamples = 1\nvalue = 6.0"] ;
606 -> 608 ;
609 [label="mse = 0.0\nsamples = 23\nvalue = 7.0"] ;
605 -> 609 ;
610 [label="residual_sugar <= 2.25\nmse = 0.336\nsamples = 23\nvalue = 6.522"] ;
600 -> 610 ;
611 [label="free_sulfur_dioxide <= 31.0\nmse = 0.178\nsamples = 13\nvalue = 6.231"] ;
610 -> 611 ;
612 [label="mse = 0.0\nsamples = 8\nvalue = 6.0"] ;
611 -> 612 ;
613 [label="free_sulfur_dioxide <= 37.5\nmse = 0.24\nsamples = 5\nvalue = 6.6"] ;
611 -> 613 ;
614 [label="mse = 0.0\nsamples = 2\nvalue = 7.0"] ;
613 -> 614 ;
615 [label="residual_sugar <= 1.775\nmse = 0.222\nsamples = 3\nvalue = 6.333"] ;
613 -> 615 ;
616 [label="mse = 0.0\nsamples = 1\nvalue = 7.0"] ;
615 -> 616 ;
617 [label="mse = 0.0\nsamples = 2\nvalue = 6.0"] ;
615 -> 617 ;
618 [label="citric_acid <= 0.17\nmse = 0.29\nsamples = 10\nvalue = 6.9"] ;
610 -> 618 ;
619 [label="mse = 0.0\nsamples = 1\nvalue = 8.0"] ;
618 -> 619 ;
620 [label="pH <= 3.42\nmse = 0.173\nsamples = 9\nvalue = 6.778"] ;
618 -> 620 ;
621 [label="residual_sugar <= 2.45\nmse = 0.109\nsamples = 8\nvalue = 6.875"] ;
620 -> 621 ;
622 [label="alcohol <= 11.8\nmse = 0.25\nsamples = 2\nvalue = 6.5"] ;
621 -> 622 ;
623 [label="mse = 0.0\nsamples = 1\nvalue = 7.0"] ;
622 -> 623 ;
624 [label="mse = 0.0\nsamples = 1\nvalue = 6.0"] ;
622 -> 624 ;
625 [label="mse = 0.0\nsamples = 6\nvalue = 7.0"] ;
621 -> 625 ;
626 [label="mse = 0.0\nsamples = 1\nvalue = 6.0"] ;
620 -> 626 ;
627 [label="mse = 0.0\nsamples = 1\nvalue = 5.0"] ;
597 -> 627 ;
628 [label="total_sulfur_dioxide <= 100.5\nmse = 0.222\nsamples = 3\nvalue = 5.333"] ;
556 -> 628 ;
629 [label="mse = 0.0\nsamples = 2\nvalue = 5.0"] ;
628 -> 629 ;
630 [label="mse = 0.0\nsamples = 1\nvalue = 6.0"] ;
628 -> 630 ;
}